{"graph_0": {"_type": "graph-file", "path": "media/graph/graph_0_summary_e2adcc2e.graph.json", "sha256": "e2adcc2e4c4a29fbd48c57d39cc368bbf8a2342ca1adc914c1d677091c196be2", "size": 52574}, "gradients/module.mm_module.inside.lstm.bias_hh_l0": {"_type": "histogram", "values": [1.0, 0.0, 0.0, 0.0, 0.0, 0.0, 0.0, 0.0, 0.0, 0.0, 0.0, 0.0, 0.0, 0.0, 0.0, 0.0, 0.0, 0.0, 0.0, 0.0, 0.0, 0.0, 0.0, 0.0, 0.0, 1.0, 0.0, 0.0, 0.0, 0.0, 0.0, 0.0, 0.0, 0.0, 0.0, 0.0, 1.0, 0.0, 0.0, 1.0, 0.0, 0.0, 0.0, 1.0, 2.0, 0.0, 0.0, 0.0, 1.0, 0.0, 0.0, 2.0, 3.0, 3.0, 50.0, 29.0, 15.0, 7.0, 2.0, 2.0, 2.0, 1.0, 3.0, 1.0], "bins": [-0.010561993345618248, -0.010369744151830673, -0.010177494958043098, -0.009985245764255524, -0.009792996570467949, -0.009600747376680374, -0.0094084981828928, -0.009216248989105225, -0.00902399979531765, -0.008831750601530075, -0.0086395014077425, -0.008447252213954926, -0.00825500302016735, -0.008062753826379776, -0.007870504632592201, -0.0076782554388046265, -0.007486006245017052, -0.00729375658556819, -0.007101507391780615, -0.00690925819799304, -0.006717009004205465, -0.0065247598104178905, -0.006332510616630316, -0.006140261422842741, -0.005948012229055166, -0.0057557630352675915, -0.005563513841480017, -0.005371264647692442, -0.005179015453904867, -0.004986766260117292, -0.004794517066329718, -0.004602267872542143, -0.004410018678754568, -0.004217769484966993, -0.0040255202911794186, -0.003833271097391844, -0.003641021903604269, -0.0034487727098166943, -0.0032565235160291195, -0.0030642743222415447, -0.00287202512845397, -0.0026797757018357515, -0.0024875265080481768, -0.002295277314260602, -0.0021030281204730272, -0.0019107789266854525, -0.0017185297328978777, -0.001526280539110303, -0.0013340313453227282, -0.0011417821515351534, -0.0009495329577475786, -0.0007572837057523429, -0.0005650345119647682, -0.0003727853181771934, -0.00018053609528578818, 1.1713113053701818e-05, 0.00020396232139319181, 0.0003962115151807666, 0.0005884607089683414, 0.000780709960963577, 0.0009729591547511518, 0.0011652084067463875, 0.0013574576005339622, 0.001549706794321537, 0.0017419559881091118]}, "gradients/module.mm_module.inside.self_attn.out_proj.bias": {"_type": "histogram", "values": [1.0, 0.0, 0.0, 1.0, 0.0, 0.0, 0.0, 0.0, 0.0, 0.0, 0.0, 1.0, 1.0, 0.0, 0.0, 0.0, 0.0, 0.0, 0.0, 0.0, 0.0, 0.0, 0.0, 0.0, 0.0, 0.0, 0.0, 2.0, 0.0, 0.0, 0.0, 0.0, 0.0, 0.0, 0.0, 0.0, 1.0, 0.0, 1.0, 2.0, 1.0, 0.0, 16.0, 0.0, 0.0, 1.0, 1.0, 0.0, 1.0, 0.0, 0.0, 0.0, 0.0, 0.0, 0.0, 0.0, 0.0, 0.0, 0.0, 0.0, 1.0, 0.0, 0.0, 1.0], "bins": [-0.325574666261673, -0.3178875148296356, -0.3102003335952759, -0.3025131821632385, -0.2948260009288788, -0.28713884949684143, -0.2794516682624817, -0.27176451683044434, -0.264077365398407, -0.25639018416404724, -0.2487030178308487, -0.24101585149765015, -0.2333287000656128, -0.22564153373241425, -0.2179543673992157, -0.21026720106601715, -0.2025800347328186, -0.19489286839962006, -0.1872057020664215, -0.17951853573322296, -0.17183136940002441, -0.16414421796798706, -0.1564570516347885, -0.14876988530158997, -0.14108271896839142, -0.13339555263519287, -0.12570838630199432, -0.11802122741937637, -0.11033406108617783, -0.10264689475297928, -0.09495973587036133, -0.08727256953716278, -0.07958540320396423, -0.07189823687076569, -0.06421107053756714, -0.05652391165494919, -0.04883674532175064, -0.041149578988552094, -0.033462416380643845, -0.025775251910090446, -0.01808808743953705, -0.01040092296898365, -0.002713758498430252, 0.004973405972123146, 0.012660570442676544, 0.020347734913229942, 0.02803489938378334, 0.03572206199169159, 0.04340922832489014, 0.051096394658088684, 0.05878355726599693, 0.06647071987390518, 0.07415788620710373, 0.08184505254030228, 0.08953221142292023, 0.09721937775611877, 0.10490654408931732, 0.11259371042251587, 0.12028087675571442, 0.12796804308891296, 0.13565519452095032, 0.14334236085414886, 0.1510295271873474, 0.15871669352054596, 0.1664038598537445]}, "gradients/module.mm_module.inside.fe_fc.weight": {"_type": "histogram", "values": [1.0, 0.0, 0.0, 0.0, 0.0, 0.0, 0.0, 0.0, 0.0, 1.0, 2.0, 2.0, 1.0, 6.0, 5.0, 5.0, 9.0, 21.0, 27.0, 44.0, 58.0, 124.0, 248.0, 524.0, 1213.0, 2822.0, 6589.0, 19948.0, 21638.0, 6449.0, 2805.0, 1302.0, 694.0, 380.0, 216.0, 149.0, 71.0, 56.0, 36.0, 21.0, 26.0, 10.0, 3.0, 9.0, 4.0, 4.0, 1.0, 4.0, 1.0, 2.0, 0.0, 1.0, 2.0, 1.0, 0.0, 0.0, 0.0, 0.0, 0.0, 0.0, 0.0, 0.0, 0.0, 1.0], "bins": [-0.025096992030739784, -0.024197561666369438, -0.023298129439353943, -0.022398699074983597, -0.02149926871061325, -0.020599838346242905, -0.01970040798187256, -0.018800975754857063, -0.017901545390486717, -0.01700211502611637, -0.016102682799100876, -0.01520325243473053, -0.014303822070360184, -0.013404391705989838, -0.012504960410296917, -0.011605529114603996, -0.01070609875023365, -0.009806668385863304, -0.008907237090170383, -0.008007805794477463, -0.007108375430107117, -0.006208944600075483, -0.00530951377004385, -0.004410082940012217, -0.003510652109980583, -0.00261122127994895, -0.0017117904499173164, -0.0008123596198856831, 8.707121014595032e-05, 0.0009865020401775837, 0.001885932870209217, 0.0027853637002408504, 0.003684794530272484, 0.004584225360304117, 0.005483656190335751, 0.006383087020367384, 0.007282517850399017, 0.008181948214769363, 0.009081379510462284, 0.009980810806155205, 0.01088024117052555, 0.011779671534895897, 0.012679102830588818, 0.013578534126281738, 0.014477964490652084, 0.01537739485502243, 0.016276825219392776, 0.017176257446408272, 0.018075687810778618, 0.018975118175148964, 0.01987455040216446, 0.020773980766534805, 0.02167341113090515, 0.022572841495275497, 0.023472271859645844, 0.02437170408666134, 0.025271134451031685, 0.02617056481540203, 0.027069997042417526, 0.027969427406787872, 0.02886885777115822, 0.029768288135528564, 0.03066771849989891, 0.03156714886426926, 0.0324665829539299]}, "gradients/module.mm_module.outside.lstm.weight_ih_l0": {"_type": "histogram", "values": [1.0, 0.0, 0.0, 0.0, 0.0, 0.0, 0.0, 0.0, 0.0, 0.0, 0.0, 0.0, 1.0, 0.0, 0.0, 1.0, 0.0, 0.0, 1.0, 0.0, 0.0, 0.0, 2.0, 3.0, 1.0, 1.0, 5.0, 3.0, 5.0, 13.0, 13.0, 15.0, 32.0, 61.0, 103.0, 239.0, 2418.0, 766.0, 207.0, 88.0, 37.0, 26.0, 19.0, 8.0, 7.0, 3.0, 2.0, 3.0, 2.0, 2.0, 1.0, 4.0, 1.0, 0.0, 0.0, 0.0, 0.0, 1.0, 0.0, 0.0, 0.0, 0.0, 0.0, 1.0], "bins": [-0.0925905629992485, -0.09007856994867325, -0.0875665694475174, -0.08505457639694214, -0.08254258334636688, -0.08003058284521103, -0.07751858979463577, -0.07500658929347992, -0.07249459624290466, -0.0699826031923294, -0.06747060269117355, -0.0649586096405983, -0.06244661286473274, -0.05993461608886719, -0.05742262303829193, -0.054910626262426376, -0.05239862948656082, -0.04988663271069527, -0.04737463593482971, -0.044862642884254456, -0.0423506461083889, -0.039838649332523346, -0.03732665628194809, -0.034814659506082535, -0.03230266273021698, -0.029790665954351425, -0.02727867104113102, -0.024766676127910614, -0.02225467935204506, -0.019742682576179504, -0.0172306876629591, -0.014718691818416119, -0.012206695973873138, -0.009694700129330158, -0.007182704284787178, -0.004670708440244198, -0.0021587125957012177, 0.00035328324884176254, 0.0028652790933847427, 0.005377274937927723, 0.007889270782470703, 0.010401266627013683, 0.012913262471556664, 0.015425258316099644, 0.017937254160642624, 0.02044925093650818, 0.022961245849728584, 0.02547324076294899, 0.027985237538814545, 0.0304972343146801, 0.033009231090545654, 0.03552122414112091, 0.038033220916986465, 0.04054521769285202, 0.04305721074342728, 0.04556920751929283, 0.048081204295158386, 0.05059320107102394, 0.053105197846889496, 0.05561719089746475, 0.05812918767333031, 0.06064118444919586, 0.06315317749977112, 0.06566517800092697, 0.06817717105150223]}, "_timestamp": 1599754779.1855261, "gradients/module.mm_module.outside.lstm.bias_hh_l0": {"_type": "histogram", "values": [1.0, 0.0, 0.0, 0.0, 0.0, 0.0, 0.0, 0.0, 0.0, 0.0, 0.0, 1.0, 0.0, 0.0, 0.0, 1.0, 0.0, 1.0, 0.0, 0.0, 0.0, 0.0, 1.0, 2.0, 0.0, 2.0, 1.0, 3.0, 2.0, 0.0, 3.0, 6.0, 7.0, 9.0, 16.0, 34.0, 12.0, 5.0, 4.0, 2.0, 2.0, 4.0, 1.0, 1.0, 0.0, 0.0, 2.0, 0.0, 0.0, 2.0, 1.0, 0.0, 0.0, 0.0, 0.0, 0.0, 1.0, 0.0, 0.0, 0.0, 0.0, 0.0, 0.0, 1.0], "bins": [-0.007705969735980034, -0.007486901246011257, -0.0072678327560424805, -0.0070487638004124165, -0.00682969531044364, -0.006610626820474863, -0.006391558330506086, -0.00617248984053731, -0.005953420884907246, -0.005734352394938469, -0.005515283904969692, -0.0052962154150009155, -0.005077146925032139, -0.004858078435063362, -0.004639009479433298, -0.004419940989464521, -0.004200872499495745, -0.003981804009526968, -0.0037627352867275476, -0.003543666796758771, -0.0033245980739593506, -0.003105529583990574, -0.002886461094021797, -0.002667392371222377, -0.0024483238812536, -0.0022292553912848234, -0.002010186668485403, -0.0017911181785166264, -0.0015720495721325278, -0.0013529809657484293, -0.0011339124757796526, -0.0009148438693955541, -0.0006957752630114555, -0.00047670668573118746, -0.0002576381084509194, -3.856953117065132e-05, 0.00018049904610961676, 0.00039956762338988483, 0.0006186362006701529, 0.0008377047488465905, 0.001056773355230689, 0.0012758419616147876, 0.001494910567998886, 0.0017139790579676628, 0.0019330476643517613, 0.00215211627073586, 0.0023711847607046366, 0.002590253483504057, 0.0028093219734728336, 0.0030283904634416103, 0.0032474591862410307, 0.0034665276762098074, 0.0036855963990092278, 0.0039046648889780045, 0.004123733378946781, 0.004342801868915558, 0.0045618703588843346, 0.004780939314514399, 0.005000007804483175, 0.005219076294451952, 0.005438144784420729, 0.005657213274389505, 0.005876282230019569, 0.006095350719988346, 0.006314419209957123]}, "gradients/module.mm_module.inside.self_attn.in_proj_bias": {"_type": "histogram", "values": [2.0, 0.0, 1.0, 0.0, 0.0, 0.0, 0.0, 0.0, 0.0, 2.0, 0.0, 0.0, 2.0, 0.0, 1.0, 0.0, 1.0, 1.0, 0.0, 0.0, 0.0, 0.0, 0.0, 0.0, 0.0, 2.0, 63.0, 2.0, 1.0, 1.0, 0.0, 2.0, 3.0, 0.0, 0.0, 0.0, 0.0, 0.0, 1.0, 0.0, 0.0, 0.0, 1.0, 2.0, 0.0, 0.0, 0.0, 0.0, 0.0, 0.0, 0.0, 1.0, 0.0, 1.0, 2.0, 1.0, 2.0, 0.0, 0.0, 0.0, 0.0, 0.0, 0.0, 1.0], "bins": [-0.09541979432106018, -0.09185399115085602, -0.08828818798065186, -0.08472238481044769, -0.08115658164024353, -0.07759077847003937, -0.0740249752998352, -0.07045917212963104, -0.06689336895942688, -0.06332756578922272, -0.059761758893728256, -0.056195955723524094, -0.05263015255331993, -0.04906434938311577, -0.045498546212911606, -0.04193274304270744, -0.03836693987250328, -0.03480113670229912, -0.031235333532094955, -0.027669530361890793, -0.02410372719168663, -0.02053792215883732, -0.016972118988633156, -0.013406315818428993, -0.00984051264822483, -0.006274709478020668, -0.002708905842155218, 0.0008568975608795881, 0.004422700963914394, 0.007988504134118557, 0.011554308235645294, 0.015120111405849457, 0.01868591457605362, 0.022251717746257782, 0.025817520916461945, 0.029383324086666107, 0.03294912725687027, 0.03651493042707443, 0.040080733597278595, 0.04364653676748276, 0.04721233993768692, 0.05077814683318138, 0.054343950003385544, 0.057909753173589706, 0.06147555634379387, 0.06504135578870773, 0.0686071589589119, 0.07217296212911606, 0.07573877274990082, 0.07930457592010498, 0.08287037909030914, 0.0864361822605133, 0.09000198543071747, 0.09356778860092163, 0.0971335917711258, 0.10069939494132996, 0.10426519811153412, 0.10783100128173828, 0.11139680445194244, 0.1149626076221466, 0.11852841079235077, 0.12209421396255493, 0.1256600171327591, 0.12922582030296326, 0.13279162347316742]}, "gradients/module.mm_module.outside.lstm.weight_hh_l0": {"_type": "histogram", "values": [1.0, 0.0, 1.0, 0.0, 0.0, 1.0, 0.0, 2.0, 4.0, 2.0, 2.0, 1.0, 2.0, 5.0, 3.0, 6.0, 7.0, 10.0, 9.0, 6.0, 6.0, 11.0, 8.0, 17.0, 24.0, 31.0, 46.0, 68.0, 108.0, 175.0, 335.0, 2343.0, 324.0, 163.0, 116.0, 65.0, 48.0, 36.0, 24.0, 14.0, 10.0, 10.0, 11.0, 5.0, 8.0, 9.0, 2.0, 2.0, 2.0, 2.0, 3.0, 1.0, 0.0, 1.0, 2.0, 1.0, 1.0, 0.0, 0.0, 1.0, 0.0, 0.0, 0.0, 1.0], "bins": [-0.0022198213264346123, -0.002149200765416026, -0.00207858020439744, -0.002007959643378854, -0.0019373391987755895, -0.0018667186377570033, -0.001796098193153739, -0.0017254776321351528, -0.0016548570711165667, -0.0015842365100979805, -0.0015136159490793943, -0.00144299550447613, -0.0013723749434575438, -0.0013017543824389577, -0.0012311339378356934, -0.0011605133768171072, -0.001089892815798521, -0.0010192722547799349, -0.0009486517519690096, -0.0008780312491580844, -0.0008074106881394982, -0.0007367901271209121, -0.0006661696243099868, -0.0005955491214990616, -0.0005249285604804754, -0.0004543080285657197, -0.000383687496650964, -0.0003130669647362083, -0.00024244643282145262, -0.00017182590090669692, -0.00010120536899194121, -3.058483707718551e-05, 4.003569483757019e-05, 0.00011065622675232589, 0.0001812767586670816, 0.0002518972905818373, 0.000322517822496593, 0.0003931383544113487, 0.0004637588863261044, 0.0005343793891370296, 0.0006049999501556158, 0.000675620511174202, 0.0007462410139851272, 0.0008168615167960525, 0.0008874820778146386, 0.0009581026388332248, 0.001028723083436489, 0.0010993436444550753, 0.0011699642054736614, 0.0012405847664922476, 0.0013112053275108337, 0.001381825772114098, 0.0014524463331326842, 0.0015230668941512704, 0.0015936873387545347, 0.0016643078997731209, 0.001734928460791707, 0.0018055490218102932, 0.0018761695828288794, 0.0019467900274321437, 0.002017410472035408, 0.002088031033053994, 0.0021586515940725803, 0.0022292721550911665, 0.0022998927161097527]}, "gradients/module.mm_module.inside.self_attn.out_proj.weight": {"_type": "histogram", "values": [1.0, 0.0, 0.0, 0.0, 0.0, 0.0, 0.0, 0.0, 1.0, 2.0, 1.0, 0.0, 1.0, 3.0, 1.0, 2.0, 5.0, 4.0, 2.0, 5.0, 10.0, 8.0, 14.0, 21.0, 28.0, 24.0, 50.0, 71.0, 583.0, 59.0, 21.0, 18.0, 13.0, 7.0, 12.0, 10.0, 9.0, 7.0, 6.0, 5.0, 1.0, 1.0, 2.0, 2.0, 1.0, 2.0, 2.0, 0.0, 1.0, 3.0, 2.0, 1.0, 0.0, 0.0, 0.0, 0.0, 0.0, 1.0, 0.0, 0.0, 0.0, 0.0, 0.0, 1.0], "bins": [-0.08652786165475845, -0.08345579355955124, -0.08038371801376343, -0.07731164991855621, -0.0742395743727684, -0.07116750627756119, -0.06809543073177338, -0.06502336263656616, -0.06195129081606865, -0.058879218995571136, -0.055807147175073624, -0.05273507535457611, -0.049663007259368896, -0.046590935438871384, -0.04351886361837387, -0.04044679179787636, -0.037374719977378845, -0.03430264815688133, -0.03123057633638382, -0.028158506378531456, -0.025086434558033943, -0.02201436273753643, -0.018942292779684067, -0.015870220959186554, -0.012798149138689041, -0.009726077318191528, -0.00665400642901659, -0.0035819350741803646, -0.0005098637193441391, 0.0025622076354920864, 0.005634278990328312, 0.00870634987950325, 0.011778421700000763, 0.014850493520498276, 0.01792256534099579, 0.020994635298848152, 0.024066707119345665, 0.027138778939843178, 0.03021084889769554, 0.033282920718193054, 0.03635499253869057, 0.03942706435918808, 0.04249913617968559, 0.045571208000183105, 0.04864327609539032, 0.05171534791588783, 0.054787419736385345, 0.05785949155688286, 0.06093156337738037, 0.06400363147258759, 0.0670757070183754, 0.07014777511358261, 0.07321985065937042, 0.07629191875457764, 0.07936399430036545, 0.08243606239557266, 0.08550813794136047, 0.08858020603656769, 0.0916522741317749, 0.09472434967756271, 0.09779641777276993, 0.10086849331855774, 0.10394056141376495, 0.10701263695955276, 0.11008470505475998]}, "gradients/module.mm_module.outside.lstm.bias_ih_l1": {"_type": "histogram", "values": [1.0, 0.0, 0.0, 0.0, 0.0, 0.0, 0.0, 0.0, 0.0, 1.0, 0.0, 0.0, 0.0, 0.0, 0.0, 0.0, 0.0, 2.0, 0.0, 0.0, 4.0, 0.0, 0.0, 0.0, 1.0, 0.0, 1.0, 2.0, 2.0, 2.0, 15.0, 46.0, 23.0, 7.0, 1.0, 2.0, 2.0, 3.0, 2.0, 0.0, 1.0, 2.0, 1.0, 1.0, 1.0, 0.0, 0.0, 1.0, 1.0, 0.0, 0.0, 0.0, 0.0, 0.0, 1.0, 1.0, 0.0, 0.0, 0.0, 0.0, 0.0, 0.0, 0.0, 1.0], "bins": [-0.05239773541688919, -0.05074996501207352, -0.049102190881967545, -0.04745441675186157, -0.0458066463470459, -0.044158875942230225, -0.04251110181212425, -0.04086332768201828, -0.039215557277202606, -0.03756778687238693, -0.03592001274228096, -0.03427223861217499, -0.032624468207359314, -0.03097669593989849, -0.029328923672437668, -0.027681151404976845, -0.02603337913751602, -0.0243856068700552, -0.022737834602594376, -0.021090062335133553, -0.01944229006767273, -0.017794517800211906, -0.016146745532751083, -0.01449897326529026, -0.012851200997829437, -0.011203428730368614, -0.009555656462907791, -0.007907884195446968, -0.006260111927986145, -0.004612339660525322, -0.002964567393064499, -0.0013167951256036758, 0.0003309771418571472, 0.0019787494093179703, 0.0036265216767787933, 0.005274293944239616, 0.0069220662117004395, 0.008569838479161263, 0.010217610746622086, 0.011865383014082909, 0.013513155281543732, 0.015160927549004555, 0.016808699816465378, 0.0184564720839262, 0.020104244351387024, 0.021752016618847847, 0.02339978888630867, 0.025047561153769493, 0.026695333421230316, 0.02834310568869114, 0.029990877956151962, 0.031638652086257935, 0.03328642249107361, 0.03493419289588928, 0.036581967025995255, 0.03822974115610123, 0.0398775115609169, 0.041525281965732574, 0.04317305609583855, 0.04482083022594452, 0.04646860063076019, 0.04811637103557587, 0.04976414516568184, 0.05141191929578781, 0.053059689700603485]}, "gradients/module.mm_module.outside.self_attn.in_proj_bias": {"_type": "histogram", "values": [1.0, 1.0, 1.0, 0.0, 1.0, 0.0, 0.0, 1.0, 0.0, 0.0, 0.0, 1.0, 2.0, 0.0, 0.0, 1.0, 1.0, 1.0, 1.0, 0.0, 1.0, 0.0, 1.0, 1.0, 0.0, 0.0, 1.0, 0.0, 18.0, 47.0, 2.0, 4.0, 1.0, 2.0, 0.0, 0.0, 0.0, 0.0, 1.0, 0.0, 0.0, 0.0, 0.0, 0.0, 2.0, 1.0, 0.0, 0.0, 1.0, 0.0, 0.0, 0.0, 0.0, 0.0, 0.0, 0.0, 0.0, 0.0, 0.0, 0.0, 0.0, 0.0, 0.0, 1.0], "bins": [-0.14205393195152283, -0.13715671002864838, -0.13225947320461273, -0.12736225128173828, -0.12246502935886383, -0.11756779998540878, -0.11267057061195374, -0.10777334868907928, -0.10287611931562424, -0.09797888994216919, -0.09308166801929474, -0.08818443864583969, -0.08328720927238464, -0.07838998734951019, -0.07349275797605515, -0.0685955360531807, -0.06369830667972565, -0.0588010810315609, -0.05390385538339615, -0.0490066260099411, -0.04410940036177635, -0.0392121747136116, -0.034314945340156555, -0.029417719691991806, -0.024520494043827057, -0.019623268395662308, -0.01472604088485241, -0.009828814305365086, -0.004931587725877762, -3.436114639043808e-05, 0.004862865433096886, 0.00976009201258421, 0.014657318592071533, 0.019554544240236282, 0.02445177175104618, 0.02934899926185608, 0.03424622491002083, 0.03914345055818558, 0.044040679931640625, 0.048937905579805374, 0.05383513122797012, 0.05873235687613487, 0.06362958252429962, 0.06852681189775467, 0.07342404127120972, 0.07832126319408417, 0.08321849256753922, 0.08811571449041367, 0.09301294386386871, 0.09791017323732376, 0.10280739516019821, 0.10770462453365326, 0.11260184645652771, 0.11749907582998276, 0.1223963052034378, 0.12729352712631226, 0.1321907639503479, 0.13708798587322235, 0.1419852077960968, 0.14688242971897125, 0.1517796665430069, 0.15667688846588135, 0.1615741103887558, 0.16647134721279144, 0.1713685691356659]}, "gradients/module.fc_output1.weight": {"_type": "histogram", "values": [1.0, 0.0, 0.0, 1.0, 0.0, 0.0, 0.0, 0.0, 0.0, 0.0, 1.0, 0.0, 0.0, 0.0, 0.0, 0.0, 0.0, 2.0, 1.0, 1.0, 1.0, 0.0, 0.0, 0.0, 0.0, 1.0, 0.0, 0.0, 1.0, 1.0, 0.0, 0.0, 1.0, 0.0, 1.0, 4.0, 4.0, 5.0, 3.0, 1.0, 1906.0, 60.0, 13.0, 10.0, 9.0, 4.0, 4.0, 2.0, 1.0, 0.0, 0.0, 0.0, 1.0, 1.0, 1.0, 2.0, 1.0, 1.0, 0.0, 0.0, 0.0, 0.0, 1.0, 1.0], "bins": [-1.6915314197540283, -1.6501052379608154, -1.6086790561676025, -1.5672529935836792, -1.5258268117904663, -1.4844006299972534, -1.4429744482040405, -1.4015482664108276, -1.3601222038269043, -1.3186960220336914, -1.2772698402404785, -1.2358436584472656, -1.1944174766540527, -1.1529912948608398, -1.1115652322769165, -1.0701390504837036, -1.0287128686904907, -0.9872866868972778, -0.9458605647087097, -0.9044343829154968, -0.8630082607269287, -0.8215820789337158, -0.7801558971405029, -0.7387297749519348, -0.6973035931587219, -0.655877411365509, -0.6144512891769409, -0.573025107383728, -0.5315989255905151, -0.490172803401947, -0.44874662160873413, -0.40732046961784363, -0.3658943176269531, -0.3244681656360626, -0.2830420136451721, -0.24161583185195923, -0.20018967986106873, -0.15876352787017822, -0.11733736097812653, -0.07591120153665543, -0.034485042095184326, 0.006941117346286774, 0.048367276787757874, 0.08979343622922897, 0.13121959567070007, 0.17264574766159058, 0.21407191455364227, 0.25549808144569397, 0.2969242334365845, 0.338350385427475, 0.3797765374183655, 0.42120271921157837, 0.46262887120246887, 0.5040550231933594, 0.5454812049865723, 0.5869073271751404, 0.6283335089683533, 0.6697596907615662, 0.7111858129501343, 0.7526119947433472, 0.7940381765365601, 0.8354642987251282, 0.8768904805183411, 0.9183166027069092, 0.9597427845001221]}, "gradients/module.fc_output1.bias": {"_type": "histogram", "values": [1.0, 0.0, 0.0, 0.0, 0.0, 0.0, 0.0, 0.0, 0.0, 0.0, 0.0, 0.0, 0.0, 0.0, 0.0, 0.0, 0.0, 0.0, 0.0, 0.0, 0.0, 0.0, 0.0, 0.0, 1.0, 0.0, 0.0, 0.0, 0.0, 1.0, 0.0, 0.0, 0.0, 0.0, 0.0, 0.0, 24.0, 1.0, 0.0, 1.0, 0.0, 0.0, 0.0, 0.0, 1.0, 1.0, 0.0, 0.0, 0.0, 0.0, 0.0, 0.0, 0.0, 0.0, 0.0, 0.0, 0.0, 0.0, 0.0, 0.0, 0.0, 0.0, 0.0, 1.0], "bins": [-0.21823757886886597, -0.21220697462558746, -0.20617638528347015, -0.20014578104019165, -0.19411519169807434, -0.18808458745479584, -0.18205399811267853, -0.17602339386940002, -0.16999280452728271, -0.1639622002840042, -0.1579316109418869, -0.1519010066986084, -0.1458704173564911, -0.13983981311321259, -0.13380922377109528, -0.12777861952781677, -0.12174802273511887, -0.11571742594242096, -0.10968682914972305, -0.10365623235702515, -0.09762563556432724, -0.09159503877162933, -0.08556444197893143, -0.07953384518623352, -0.07350324094295502, -0.06747264415025711, -0.0614420510828495, -0.055411454290151596, -0.04938085377216339, -0.043350256979465485, -0.03731966018676758, -0.03128906339406967, -0.025258466601371765, -0.01922786980867386, -0.013197272084653378, -0.007166674826294184, -0.00113607756793499, 0.004894519690424204, 0.010925116948783398, 0.01695571467280388, 0.022986311465501785, 0.029016908258199692, 0.0350475050508976, 0.041078101843595505, 0.04710870236158371, 0.053139299154281616, 0.05916989594697952, 0.06520049273967743, 0.07123108953237534, 0.07726168632507324, 0.08329228311777115, 0.08932287991046906, 0.09535347670316696, 0.10138407349586487, 0.10741467028856277, 0.11344526708126068, 0.11947587132453918, 0.1255064606666565, 0.131537064909935, 0.1375676542520523, 0.1435982584953308, 0.14962884783744812, 0.15565945208072662, 0.16169004142284393, 0.16772064566612244]}, "gradients/module.mm_module.outside.lstm.bias_hh_l1": {"_type": "histogram", "values": [1.0, 0.0, 0.0, 0.0, 0.0, 0.0, 0.0, 0.0, 0.0, 1.0, 0.0, 0.0, 0.0, 0.0, 0.0, 0.0, 0.0, 2.0, 0.0, 0.0, 4.0, 0.0, 0.0, 0.0, 1.0, 0.0, 1.0, 2.0, 2.0, 2.0, 15.0, 46.0, 23.0, 7.0, 1.0, 2.0, 2.0, 3.0, 2.0, 0.0, 1.0, 2.0, 1.0, 1.0, 1.0, 0.0, 0.0, 1.0, 1.0, 0.0, 0.0, 0.0, 0.0, 0.0, 1.0, 1.0, 0.0, 0.0, 0.0, 0.0, 0.0, 0.0, 0.0, 1.0], "bins": [-0.05239773541688919, -0.05074996501207352, -0.049102190881967545, -0.04745441675186157, -0.0458066463470459, -0.044158875942230225, -0.04251110181212425, -0.04086332768201828, -0.039215557277202606, -0.03756778687238693, -0.03592001274228096, -0.03427223861217499, -0.032624468207359314, -0.03097669593989849, -0.029328923672437668, -0.027681151404976845, -0.02603337913751602, -0.0243856068700552, -0.022737834602594376, -0.021090062335133553, -0.01944229006767273, -0.017794517800211906, -0.016146745532751083, -0.01449897326529026, -0.012851200997829437, -0.011203428730368614, -0.009555656462907791, -0.007907884195446968, -0.006260111927986145, -0.004612339660525322, -0.002964567393064499, -0.0013167951256036758, 0.0003309771418571472, 0.0019787494093179703, 0.0036265216767787933, 0.005274293944239616, 0.0069220662117004395, 0.008569838479161263, 0.010217610746622086, 0.011865383014082909, 0.013513155281543732, 0.015160927549004555, 0.016808699816465378, 0.0184564720839262, 0.020104244351387024, 0.021752016618847847, 0.02339978888630867, 0.025047561153769493, 0.026695333421230316, 0.02834310568869114, 0.029990877956151962, 0.031638652086257935, 0.03328642249107361, 0.03493419289588928, 0.036581967025995255, 0.03822974115610123, 0.0398775115609169, 0.041525281965732574, 0.04317305609583855, 0.04482083022594452, 0.04646860063076019, 0.04811637103557587, 0.04976414516568184, 0.05141191929578781, 0.053059689700603485]}, "gradients/module.mm_module.inside.lstm.weight_ih_l1": {"_type": "histogram", "values": [1.0, 0.0, 0.0, 0.0, 0.0, 0.0, 0.0, 2.0, 0.0, 3.0, 1.0, 1.0, 1.0, 2.0, 5.0, 5.0, 3.0, 8.0, 6.0, 10.0, 14.0, 15.0, 28.0, 50.0, 55.0, 94.0, 222.0, 2729.0, 496.0, 121.0, 68.0, 35.0, 28.0, 21.0, 14.0, 12.0, 6.0, 9.0, 3.0, 3.0, 4.0, 3.0, 1.0, 1.0, 2.0, 3.0, 2.0, 0.0, 0.0, 1.0, 1.0, 0.0, 1.0, 1.0, 0.0, 0.0, 1.0, 2.0, 0.0, 1.0, 0.0, 0.0, 0.0, 1.0], "bins": [-0.04699596017599106, -0.04530196636915207, -0.04360797256231308, -0.04191397875547409, -0.0402199812233448, -0.038525987416505814, -0.036831993609666824, -0.035137999802827835, -0.033444005995988846, -0.03175001218914986, -0.030056016519665718, -0.02836202271282673, -0.02666802704334259, -0.0249740332365036, -0.023280039429664612, -0.021586043760180473, -0.019892049953341484, -0.018198056146502495, -0.016504060477018356, -0.014810066670179367, -0.013116072863340378, -0.011422078125178814, -0.00972808338701725, -0.00803408958017826, -0.006340094842016697, -0.00464610056951642, -0.0029521060641855, -0.0012581116752699018, 0.00043588271364569664, 0.002129876986145973, 0.0038238714914768934, 0.005517865996807814, 0.00721186026930809, 0.008905855007469654, 0.010599848814308643, 0.012293843552470207, 0.013987837359309196, 0.015681833028793335, 0.017375826835632324, 0.019069820642471313, 0.020763814449310303, 0.02245781011879444, 0.02415180392563343, 0.02584579773247242, 0.027539793401956558, 0.029233787208795547, 0.030927781015634537, 0.032621774822473526, 0.034315772354602814, 0.0360097661614418, 0.03770375996828079, 0.03939775377511978, 0.04109174758195877, 0.04278574138879776, 0.04447973519563675, 0.04617373272776604, 0.047867726534605026, 0.049561720341444016, 0.051255714148283005, 0.052949707955121994, 0.05464370176196098, 0.05633769929409027, 0.05803169310092926, 0.05972568690776825, 0.06141968071460724]}, "gradients/module.mm_module.inside.lstm.weight_ih_l0": {"_type": "histogram", "values": [2.0, 0.0, 1.0, 1.0, 3.0, 2.0, 0.0, 2.0, 1.0, 0.0, 3.0, 3.0, 3.0, 4.0, 5.0, 9.0, 6.0, 10.0, 29.0, 45.0, 77.0, 347.0, 3205.0, 212.0, 42.0, 25.0, 25.0, 9.0, 6.0, 5.0, 3.0, 0.0, 1.0, 1.0, 1.0, 1.0, 1.0, 0.0, 0.0, 0.0, 0.0, 1.0, 0.0, 1.0, 2.0, 0.0, 1.0, 0.0, 0.0, 0.0, 0.0, 0.0, 0.0, 0.0, 0.0, 0.0, 0.0, 0.0, 0.0, 0.0, 0.0, 0.0, 0.0, 1.0], "bins": [-0.06439366191625595, -0.06150940805673599, -0.058625154197216034, -0.055740904062986374, -0.052856650203466415, -0.04997239634394646, -0.0470881424844265, -0.04420388862490654, -0.04131963849067688, -0.03843538463115692, -0.03555113077163696, -0.032666876912117004, -0.029782623052597046, -0.026898371055722237, -0.024014117196202278, -0.02112986519932747, -0.01824561133980751, -0.015361358411610126, -0.012477105483412743, -0.009592851623892784, -0.0067085986956954, -0.0038243455346673727, -0.0009400923736393452, 0.0019441607873886824, 0.00482841394841671, 0.007712666876614094, 0.010596919804811478, 0.013481173664331436, 0.016365427523851395, 0.019249679520726204, 0.022133933380246162, 0.02501818537712097, 0.02790243923664093, 0.03078669309616089, 0.03367094695568085, 0.03655519708991051, 0.039439450949430466, 0.042323704808950424, 0.04520795866847038, 0.04809221252799034, 0.05097646266222, 0.05386071652173996, 0.05674497038125992, 0.05962922424077988, 0.06251347810029984, 0.0653977319598198, 0.06828198581933975, 0.07116623967885971, 0.07405048608779907, 0.07693473994731903, 0.07981899380683899, 0.08270324766635895, 0.0855875015258789, 0.08847175538539886, 0.09135600924491882, 0.09424026310443878, 0.09712451696395874, 0.1000087708234787, 0.10289302468299866, 0.10577727109193802, 0.10866152495145798, 0.11154577881097794, 0.1144300326704979, 0.11731428653001785, 0.12019854038953781]}, "_runtime": 1022.6132872104645, "gradients/module.mm_module.inside.lstm.weight_hh_l1": {"_type": "histogram", "values": [1.0, 1.0, 2.0, 1.0, 2.0, 1.0, 1.0, 3.0, 3.0, 1.0, 2.0, 5.0, 7.0, 5.0, 6.0, 4.0, 4.0, 5.0, 7.0, 10.0, 18.0, 30.0, 26.0, 32.0, 75.0, 95.0, 163.0, 489.0, 1905.0, 578.0, 228.0, 103.0, 72.0, 50.0, 39.0, 29.0, 21.0, 14.0, 9.0, 6.0, 4.0, 8.0, 6.0, 2.0, 4.0, 4.0, 1.0, 2.0, 3.0, 0.0, 1.0, 1.0, 2.0, 0.0, 1.0, 1.0, 0.0, 1.0, 0.0, 1.0, 0.0, 0.0, 0.0, 1.0], "bins": [-0.0047357152216136456, -0.004569760523736477, -0.004403805825859308, -0.004237850662320852, -0.004071895964443684, -0.003905941266566515, -0.0037399863358587027, -0.003574031637981534, -0.0034080767072737217, -0.003242122009396553, -0.0030761673115193844, -0.002910212380811572, -0.0027442576829344034, -0.002578302752226591, -0.0024123480543494225, -0.00224639312364161, -0.0020804384257644415, -0.001914483611471951, -0.0017485287971794605, -0.00158257398288697, -0.0014166191685944796, -0.001250664470717311, -0.0010847096564248204, -0.0009187548421323299, -0.0007528000278398395, -0.000586845213547349, -0.00042089042835868895, -0.0002549356431700289, -8.898082887753844e-05, 7.697397086303681e-05, 0.00024292877060361207, 0.0004088835557922721, 0.0005748383700847626, 0.0007407931843772531, 0.0009067479986697435, 0.001072702812962234, 0.0012386576272547245, 0.0014046123251318932, 0.0015705671394243836, 0.0017365219537168741, 0.0019024767680093646, 0.002068431582301855, 0.0022343862801790237, 0.002400341210886836, 0.0025662959087640047, 0.002732250839471817, 0.0028982055373489857, 0.003064160468056798, 0.0032301151659339666, 0.0033960698638111353, 0.0035620247945189476, 0.0037279794923961163, 0.0038939344231039286, 0.004059889353811741, 0.0042258440516889095, 0.004391798749566078, 0.004557753447443247, 0.0047237081453204155, 0.0048896633088588715, 0.00505561800673604, 0.005221572704613209, 0.005387527402490377, 0.005553482566028833, 0.005719437263906002, 0.005885391961783171]}, "gradients/module.mm_embeddings_bn.bias": {"_type": "histogram", "values": [1.0, 0.0, 0.0, 0.0, 0.0, 0.0, 0.0, 0.0, 0.0, 0.0, 0.0, 0.0, 0.0, 0.0, 0.0, 0.0, 0.0, 0.0, 0.0, 0.0, 0.0, 0.0, 0.0, 0.0, 0.0, 0.0, 0.0, 0.0, 0.0, 0.0, 0.0, 0.0, 0.0, 0.0, 0.0, 0.0, 0.0, 0.0, 0.0, 0.0, 0.0, 0.0, 0.0, 0.0, 0.0, 0.0, 0.0, 0.0, 0.0, 0.0, 0.0, 0.0, 0.0, 0.0, 0.0, 0.0, 0.0, 0.0, 0.0, 0.0, 0.0, 0.0, 0.0, 1.0], "bins": [-0.2034568339586258, -0.20129846036434174, -0.19914008677005768, -0.19698169827461243, -0.19482332468032837, -0.1926649510860443, -0.19050657749176025, -0.1883482038974762, -0.18618983030319214, -0.1840314418077469, -0.18187306821346283, -0.17971469461917877, -0.17755632102489471, -0.17539794743061066, -0.1732395738363266, -0.17108118534088135, -0.1689228117465973, -0.16676443815231323, -0.16460606455802917, -0.16244769096374512, -0.16028931736946106, -0.1581309288740158, -0.15597255527973175, -0.1538141816854477, -0.15165580809116364, -0.14949743449687958, -0.14733906090259552, -0.14518067240715027, -0.1430222988128662, -0.14086392521858215, -0.1387055516242981, -0.13654717803001404, -0.13438880443572998, -0.13223041594028473, -0.13007204234600067, -0.1279136687517166, -0.12575529515743256, -0.1235969141125679, -0.12143854051828384, -0.11928016692399979, -0.11712178587913513, -0.11496341228485107, -0.11280503869056702, -0.11064665764570236, -0.1084882840514183, -0.10632991045713425, -0.10417152941226959, -0.10201315581798553, -0.09985478222370148, -0.09769640117883682, -0.09553802758455276, -0.09337964653968811, -0.09122127294540405, -0.08906289935112, -0.08690451830625534, -0.08474614471197128, -0.08258777111768723, -0.08042939007282257, -0.07827101647853851, -0.07611264288425446, -0.0739542618393898, -0.07179588824510574, -0.06963751465082169, -0.06747913360595703, -0.06532076001167297]}, "gradients/module.mm_module.outside.self_attn.out_proj.bias": {"_type": "histogram", "values": [1.0, 0.0, 0.0, 0.0, 0.0, 0.0, 0.0, 0.0, 0.0, 0.0, 0.0, 0.0, 0.0, 0.0, 0.0, 0.0, 0.0, 0.0, 0.0, 1.0, 0.0, 0.0, 1.0, 0.0, 0.0, 0.0, 0.0, 1.0, 0.0, 1.0, 0.0, 0.0, 1.0, 1.0, 0.0, 0.0, 0.0, 0.0, 18.0, 1.0, 0.0, 3.0, 1.0, 0.0, 0.0, 0.0, 0.0, 0.0, 0.0, 0.0, 0.0, 0.0, 0.0, 0.0, 0.0, 0.0, 1.0, 0.0, 0.0, 0.0, 0.0, 0.0, 0.0, 1.0], "bins": [-0.44182902574539185, -0.43022727966308594, -0.4186255633831024, -0.4070238173007965, -0.395422101020813, -0.3838203549385071, -0.37221860885620117, -0.36061689257621765, -0.34901514649391174, -0.33741340041160583, -0.3258116841316223, -0.3142099380493164, -0.3026081919670105, -0.291006475687027, -0.27940472960472107, -0.26780301332473755, -0.25620126724243164, -0.24459953606128693, -0.2329978048801422, -0.2213960587978363, -0.2097943276166916, -0.19819259643554688, -0.18659085035324097, -0.17498911917209625, -0.16338738799095154, -0.15178565680980682, -0.1401839256286621, -0.1285821795463562, -0.11698044836521149, -0.10537871718406677, -0.09377697855234146, -0.08217523992061615, -0.07057350873947144, -0.05897177383303642, -0.04737003892660141, -0.0357683040201664, -0.024166569113731384, -0.012564834207296371, -0.0009630993008613586, 0.010638635605573654, 0.022240370512008667, 0.03384210541844368, 0.04544384032487869, 0.057045575231313705, 0.06864731013774872, 0.08024904131889343, 0.09185077995061874, 0.10345251858234406, 0.11505424976348877, 0.12665598094463348, 0.1382577121257782, 0.1498594582080841, 0.16146118938922882, 0.17306292057037354, 0.18466466665267944, 0.19626639783382416, 0.20786812901496887, 0.2194698601961136, 0.2310715913772583, 0.2426733374595642, 0.2542750835418701, 0.26587679982185364, 0.27747854590415955, 0.28908026218414307, 0.300682008266449]}, "gradients/module.mm_module.inside.fe_fc.bias": {"_type": "histogram", "values": [1.0, 0.0, 0.0, 0.0, 0.0, 0.0, 1.0, 1.0, 1.0, 0.0, 0.0, 2.0, 0.0, 0.0, 0.0, 1.0, 0.0, 1.0, 1.0, 0.0, 1.0, 1.0, 1.0, 0.0, 0.0, 0.0, 3.0, 1.0, 3.0, 0.0, 1.0, 0.0, 1.0, 1.0, 2.0, 1.0, 1.0, 0.0, 0.0, 0.0, 0.0, 1.0, 0.0, 0.0, 1.0, 0.0, 1.0, 0.0, 1.0, 0.0, 1.0, 0.0, 0.0, 0.0, 0.0, 0.0, 0.0, 0.0, 0.0, 0.0, 0.0, 0.0, 0.0, 1.0], "bins": [-0.004190149251371622, -0.004029887728393078, -0.0038696262054145336, -0.0037093646824359894, -0.003549103159457445, -0.0033888414036482573, -0.003228579880669713, -0.003068318357691169, -0.0029080568347126245, -0.0027477953117340803, -0.002587533788755536, -0.002427272265776992, -0.002267010509967804, -0.0021067489869892597, -0.0019464874640107155, -0.0017862259410321712, -0.001625964418053627, -0.0014657028950750828, -0.0013054413720965385, -0.0011451797327026725, -0.0009849182097241282, -0.000824656686745584, -0.0006643951055593789, -0.0005041335243731737, -0.0003438720013946295, -0.0001836104493122548, -2.3348897229880095e-05, 0.0001369126548524946, 0.0002971742069348693, 0.000457435759017244, 0.0006176973110996187, 0.0007779588922858238, 0.0009382204152643681, 0.0010984819382429123, 0.0012587434612214565, 0.0014190051006153226, 0.0015792666235938668, 0.001739528146572411, 0.0018997897859662771, 0.0020600513089448214, 0.0022203128319233656, 0.00238057435490191, 0.002540835877880454, 0.0027010974008589983, 0.002861359156668186, 0.0030216206796467304, 0.0031818822026252747, 0.003342143725603819, 0.003502405248582363, 0.0036626667715609074, 0.0038229282945394516, 0.003983189817517996, 0.00414345134049654, 0.004303712863475084, 0.0044639743864536285, 0.004624235909432173, 0.004784497432410717, 0.0049447594210505486, 0.005105020944029093, 0.005265282467007637, 0.005425543989986181, 0.0055858055129647255, 0.00574606703594327, 0.005906328558921814, 0.006066590081900358]}, "gradients/module.mm_module.outside.lstm.weight_hh_l1": {"_type": "histogram", "values": [1.0, 0.0, 1.0, 0.0, 1.0, 3.0, 1.0, 0.0, 0.0, 1.0, 4.0, 1.0, 1.0, 0.0, 2.0, 4.0, 3.0, 1.0, 5.0, 3.0, 5.0, 8.0, 17.0, 23.0, 12.0, 24.0, 37.0, 43.0, 62.0, 108.0, 194.0, 666.0, 1909.0, 467.0, 163.0, 100.0, 51.0, 38.0, 26.0, 24.0, 13.0, 19.0, 9.0, 2.0, 5.0, 9.0, 5.0, 5.0, 4.0, 4.0, 2.0, 1.0, 0.0, 2.0, 0.0, 0.0, 3.0, 0.0, 1.0, 0.0, 0.0, 1.0, 1.0, 1.0], "bins": [-0.004444402176886797, -0.004306909628212452, -0.00416941661387682, -0.004031924065202475, -0.0038944310508668423, -0.0037569385021924973, -0.0036194457206875086, -0.00348195293918252, -0.0033444601576775312, -0.0032069673761725426, -0.003069474594667554, -0.0029319818131625652, -0.00279448926448822, -0.0026569964829832315, -0.002519503701478243, -0.002382010919973254, -0.0022445181384682655, -0.002107025356963277, -0.001969532575458288, -0.0018320399103686213, -0.0016945471288636327, -0.001557054347358644, -0.0014195616822689772, -0.0012820689007639885, -0.0011445761192589998, -0.0010070833377540112, -0.0008695906144566834, -0.0007320978911593556, -0.000594605109654367, -0.00045711235725320876, -0.00031961960485205054, -0.00018212685245089233, -4.4634100049734116e-05, 9.28586523514241e-05, 0.0002303514047525823, 0.0003678441571537405, 0.0005053369095548987, 0.0006428296910598874, 0.0007803224143572152, 0.0009178151376545429, 0.0010553079191595316, 0.0011928007006645203, 0.001330293482169509, 0.0014677861472591758, 0.0016052789287641644, 0.0017427717102691531, 0.00188026437535882, 0.0020177571568638086, 0.0021552499383687973, 0.002292742719873786, 0.0024302355013787746, 0.0025677282828837633, 0.002705221064388752, 0.002842713613063097, 0.0029802063945680857, 0.0031176991760730743, 0.003255191957578063, 0.0033926847390830517, 0.0035301775205880404, 0.003667670302093029, 0.003805162850767374, 0.003942655865103006, 0.004080148413777351, 0.004217641428112984, 0.004355133976787329]}, "_step": 24, "gradients/module.mm_module.outside.lstm.bias_ih_l0": {"_type": "histogram", "values": [1.0, 0.0, 0.0, 0.0, 0.0, 0.0, 0.0, 0.0, 0.0, 0.0, 0.0, 1.0, 0.0, 0.0, 0.0, 1.0, 0.0, 1.0, 0.0, 0.0, 0.0, 0.0, 1.0, 2.0, 0.0, 2.0, 1.0, 3.0, 2.0, 0.0, 3.0, 6.0, 7.0, 9.0, 16.0, 34.0, 12.0, 5.0, 4.0, 2.0, 2.0, 4.0, 1.0, 1.0, 0.0, 0.0, 2.0, 0.0, 0.0, 2.0, 1.0, 0.0, 0.0, 0.0, 0.0, 0.0, 1.0, 0.0, 0.0, 0.0, 0.0, 0.0, 0.0, 1.0], "bins": [-0.007705969735980034, -0.007486901246011257, -0.0072678327560424805, -0.0070487638004124165, -0.00682969531044364, -0.006610626820474863, -0.006391558330506086, -0.00617248984053731, -0.005953420884907246, -0.005734352394938469, -0.005515283904969692, -0.0052962154150009155, -0.005077146925032139, -0.004858078435063362, -0.004639009479433298, -0.004419940989464521, -0.004200872499495745, -0.003981804009526968, -0.0037627352867275476, -0.003543666796758771, -0.0033245980739593506, -0.003105529583990574, -0.002886461094021797, -0.002667392371222377, -0.0024483238812536, -0.0022292553912848234, -0.002010186668485403, -0.0017911181785166264, -0.0015720495721325278, -0.0013529809657484293, -0.0011339124757796526, -0.0009148438693955541, -0.0006957752630114555, -0.00047670668573118746, -0.0002576381084509194, -3.856953117065132e-05, 0.00018049904610961676, 0.00039956762338988483, 0.0006186362006701529, 0.0008377047488465905, 0.001056773355230689, 0.0012758419616147876, 0.001494910567998886, 0.0017139790579676628, 0.0019330476643517613, 0.00215211627073586, 0.0023711847607046366, 0.002590253483504057, 0.0028093219734728336, 0.0030283904634416103, 0.0032474591862410307, 0.0034665276762098074, 0.0036855963990092278, 0.0039046648889780045, 0.004123733378946781, 0.004342801868915558, 0.0045618703588843346, 0.004780939314514399, 0.005000007804483175, 0.005219076294451952, 0.005438144784420729, 0.005657213274389505, 0.005876282230019569, 0.006095350719988346, 0.006314419209957123]}, "gradients/module.mm_module.outside.lstm.weight_ih_l1": {"_type": "histogram", "values": [1.0, 0.0, 0.0, 1.0, 0.0, 1.0, 0.0, 1.0, 0.0, 0.0, 1.0, 4.0, 3.0, 1.0, 4.0, 3.0, 2.0, 2.0, 7.0, 10.0, 10.0, 9.0, 15.0, 16.0, 32.0, 25.0, 37.0, 48.0, 46.0, 70.0, 153.0, 538.0, 2330.0, 332.0, 136.0, 49.0, 36.0, 37.0, 29.0, 18.0, 14.0, 12.0, 9.0, 9.0, 10.0, 3.0, 6.0, 4.0, 3.0, 1.0, 3.0, 2.0, 2.0, 2.0, 2.0, 1.0, 0.0, 1.0, 0.0, 2.0, 0.0, 2.0, 0.0, 1.0], "bins": [-0.032349843531847, -0.031348444521427155, -0.03034704364836216, -0.029345644637942314, -0.02834424376487732, -0.027342844754457474, -0.02634144388139248, -0.025340044870972633, -0.02433864399790764, -0.023337244987487793, -0.022335845977067947, -0.021334445104002953, -0.020333046093583107, -0.019331645220518112, -0.018330246210098267, -0.017328845337033272, -0.016327446326613426, -0.015326046384871006, -0.014324646443128586, -0.013323246501386166, -0.012321846559643745, -0.0113204475492239, -0.01031904760748148, -0.00931764766573906, -0.00831624772399664, -0.007314847782254219, -0.006313447840511799, -0.005312048364430666, -0.004310648422688246, -0.0033092484809458256, -0.002307848772034049, -0.0013064489467069507, -0.0003050491213798523, 0.0006963507039472461, 0.0016977505292743444, 0.002699150238186121, 0.003700550179928541, 0.004701950121670961, 0.005703349597752094, 0.0067047495394945145, 0.007706149481236935, 0.008707549422979355, 0.009708949364721775, 0.010710349306464195, 0.01171174831688404, 0.012713148258626461, 0.013714548200368881, 0.014715948142111301, 0.01571734808385372, 0.016718747094273567, 0.017720147967338562, 0.018721546977758408, 0.019722947850823402, 0.020724346861243248, 0.021725747734308243, 0.02272714674472809, 0.023728545755147934, 0.02472994662821293, 0.025731345638632774, 0.02673274651169777, 0.027734145522117615, 0.02873554639518261, 0.029736945405602455, 0.03073834627866745, 0.031739745289087296]}, "gradients/module.mm_module.inside.lstm.bias_hh_l1": {"_type": "histogram", "values": [1.0, 1.0, 0.0, 0.0, 0.0, 0.0, 0.0, 1.0, 0.0, 2.0, 0.0, 1.0, 1.0, 0.0, 1.0, 3.0, 3.0, 1.0, 4.0, 3.0, 19.0, 41.0, 21.0, 6.0, 3.0, 5.0, 2.0, 0.0, 1.0, 1.0, 1.0, 0.0, 1.0, 0.0, 1.0, 0.0, 0.0, 0.0, 0.0, 0.0, 0.0, 0.0, 1.0, 0.0, 0.0, 0.0, 0.0, 0.0, 0.0, 0.0, 0.0, 0.0, 0.0, 0.0, 0.0, 0.0, 1.0, 0.0, 0.0, 0.0, 0.0, 0.0, 0.0, 2.0], "bins": [-0.031847987323999405, -0.030371028929948807, -0.02889407053589821, -0.02741711214184761, -0.025940153747797012, -0.024463193491101265, -0.022986235097050667, -0.02150927670300007, -0.02003231830894947, -0.018555359914898872, -0.017078401520848274, -0.015601442195475101, -0.014124483801424503, -0.012647525407373905, -0.011170566082000732, -0.009693607687950134, -0.008216649293899536, -0.006739690899848938, -0.0052627320401370525, -0.0037857734132558107, -0.002308814786374569, -0.0008318561594933271, 0.0006451024673879147, 0.0021220610942691565, 0.0035990197211503983, 0.005075978115200996, 0.006552936974912882, 0.008029895834624767, 0.009506854228675365, 0.010983812622725964, 0.012460771948099136, 0.013937730342149734, 0.015414688736200333, 0.01689164713025093, 0.01836860552430153, 0.019845563918352127, 0.021322522312402725, 0.022799482569098473, 0.02427644096314907, 0.02575339935719967, 0.027230357751250267, 0.028707316145300865, 0.030184274539351463, 0.03166123479604721, 0.03313819319009781, 0.03461515158414841, 0.036092109978199005, 0.0375690683722496, 0.0390460267663002, 0.0405229851603508, 0.0419999435544014, 0.043476901948451996, 0.044953860342502594, 0.04643081873655319, 0.04790777713060379, 0.04938473552465439, 0.05086169391870499, 0.05233865603804588, 0.05381561443209648, 0.05529257282614708, 0.05676953122019768, 0.058246489614248276, 0.059723448008298874, 0.06120040640234947, 0.06267736852169037]}, "gradients/module.mm_module.outside.fe_fc.bias": {"_type": "histogram", "values": [1.0, 0.0, 0.0, 0.0, 0.0, 1.0, 0.0, 0.0, 1.0, 2.0, 0.0, 0.0, 0.0, 0.0, 0.0, 3.0, 0.0, 0.0, 0.0, 1.0, 0.0, 1.0, 1.0, 2.0, 1.0, 0.0, 1.0, 0.0, 0.0, 2.0, 1.0, 1.0, 0.0, 0.0, 1.0, 0.0, 1.0, 2.0, 0.0, 0.0, 0.0, 2.0, 0.0, 0.0, 2.0, 0.0, 0.0, 0.0, 0.0, 0.0, 0.0, 0.0, 1.0, 1.0, 0.0, 0.0, 1.0, 0.0, 0.0, 1.0, 0.0, 0.0, 0.0, 1.0], "bins": [-0.003985018003731966, -0.0038344592321664095, -0.003683900460600853, -0.003533341456204653, -0.0033827826846390963, -0.0032322239130735397, -0.0030816649086773396, -0.002931106137111783, -0.0027805473655462265, -0.00262998859398067, -0.0024794298224151134, -0.0023288708180189133, -0.0021783120464533567, -0.0020277532748878, -0.0018771943869069219, -0.0017266354989260435, -0.001576076727360487, -0.0014255179557949305, -0.001274959067814052, -0.0011244001798331738, -0.0009738414082676172, -0.0008232825784943998, -0.0006727237487211823, -0.0005221649189479649, -0.00037160608917474747, -0.00022104725940153003, -7.048842962831259e-05, 8.007040014490485e-05, 0.0002306292299181223, 0.00038118805969133973, 0.0005317468894645572, 0.0006823057192377746, 0.000832864549010992, 0.0009834233205765486, 0.001133982208557427, 0.0012845410965383053, 0.0014350998681038618, 0.0015856586396694183, 0.0017362175276502967, 0.001886776415631175, 0.0020373351871967316, 0.002187893958762288, 0.0023384527303278446, 0.002489011734724045, 0.0026395705062896013, 0.002790129277855158, 0.002940688282251358, 0.0030912470538169146, 0.003241805825382471, 0.0033923645969480276, 0.003542923368513584, 0.0036934823729097843, 0.003844041144475341, 0.003994599916040897, 0.0041451589204370975, 0.00429571745917201, 0.004446276463568211, 0.004596835467964411, 0.004747394006699324, 0.004897953011095524, 0.005048511549830437, 0.005199070554226637, 0.005349629558622837, 0.00550018809735775, 0.00565074710175395]}, "gradients/module.mm_module.inside.lstm.weight_hh_l0": {"_type": "histogram", "values": [1.0, 2.0, 0.0, 0.0, 0.0, 0.0, 0.0, 1.0, 1.0, 2.0, 0.0, 1.0, 0.0, 0.0, 0.0, 1.0, 1.0, 2.0, 3.0, 3.0, 2.0, 3.0, 1.0, 6.0, 4.0, 7.0, 8.0, 11.0, 9.0, 18.0, 40.0, 55.0, 219.0, 3321.0, 179.0, 66.0, 43.0, 23.0, 13.0, 9.0, 10.0, 6.0, 3.0, 6.0, 3.0, 3.0, 1.0, 3.0, 2.0, 0.0, 0.0, 0.0, 0.0, 0.0, 0.0, 0.0, 2.0, 0.0, 0.0, 0.0, 0.0, 0.0, 1.0, 1.0], "bins": [-0.002592081669718027, -0.0025145059917122126, -0.002436930313706398, -0.0023593546357005835, -0.002281778957694769, -0.0022042032796889544, -0.002126627368852496, -0.0020490516908466816, -0.001971476012840867, -0.0018939003348350525, -0.001816324656829238, -0.0017387489788234234, -0.0016611733008176088, -0.0015835976228117943, -0.001506021828390658, -0.0014284461503848433, -0.0013508704723790288, -0.0012732947943732142, -0.0011957191163673997, -0.0011181433219462633, -0.0010405676439404488, -0.0009629919659346342, -0.0008854162879288197, -0.0008078405517153442, -0.0007302648737095296, -0.0006526891957037151, -0.0005751134594902396, -0.0004975377814844251, -0.00041996207437478006, -0.00034238636726513505, -0.0002648106892593205, -0.0001872349821496755, -0.00010965927504003048, -3.2083575206343085e-05, 4.549212462734431e-05, 0.0001230678171850741, 0.0002006435242947191, 0.0002782192314043641, 0.00035579490941017866, 0.00043337061651982367, 0.0005109463236294687, 0.0005885220016352832, 0.0006660977378487587, 0.0007436734158545732, 0.0008212490938603878, 0.0008988248300738633, 0.0009764005080796778, 0.0010539762442931533, 0.0011315519222989678, 0.0012091276003047824, 0.001286703278310597, 0.0013642790727317333, 0.0014418547507375479, 0.0015194304287433624, 0.001597006106749177, 0.0016745817847549915, 0.001752157462760806, 0.0018297332571819425, 0.001907308935187757, 0.0019848847296088934, 0.002062460407614708, 0.0021400360856205225, 0.002217611763626337, 0.0022951874416321516, 0.002372763119637966]}, "gradients/module.mm_module.outside.fe_fc.weight": {"_type": "histogram", "values": [2.0, 1.0, 1.0, 1.0, 0.0, 3.0, 3.0, 5.0, 5.0, 7.0, 7.0, 3.0, 14.0, 19.0, 22.0, 30.0, 44.0, 58.0, 103.0, 194.0, 331.0, 622.0, 1378.0, 3086.0, 7433.0, 18498.0, 16485.0, 7873.0, 4037.0, 2035.0, 1171.0, 717.0, 445.0, 263.0, 152.0, 115.0, 84.0, 72.0, 39.0, 32.0, 26.0, 25.0, 17.0, 16.0, 8.0, 7.0, 10.0, 6.0, 4.0, 3.0, 3.0, 5.0, 2.0, 2.0, 3.0, 0.0, 2.0, 1.0, 1.0, 0.0, 2.0, 1.0, 0.0, 2.0], "bins": [-0.015495941042900085, -0.01489720493555069, -0.01429846789687872, -0.013699730858206749, -0.013100994750857353, -0.012502258643507957, -0.011903521604835987, -0.011304784566164017, -0.010706048458814621, -0.010107312351465225, -0.009508575312793255, -0.008909838274121284, -0.008311102166771889, -0.007712365593761206, -0.007113629020750523, -0.0065148924477398396, -0.0059161558747291565, -0.0053174193017184734, -0.00471868272870779, -0.004119946155697107, -0.0035212095826864243, -0.002922473009675741, -0.002323736436665058, -0.001724999863654375, -0.001126263290643692, -0.000527526717633009, 7.12098553776741e-05, 0.0006699464283883572, 0.0012686830013990402, 0.0018674195744097233, 0.0024661561474204063, 0.0030648927204310894, 0.0036636292934417725, 0.0042623658664524555, 0.004861102439463139, 0.005459839012473822, 0.006058575585484505, 0.006657312158495188, 0.007256048731505871, 0.007854785770177841, 0.008453521877527237, 0.009052257984876633, 0.009650995023548603, 0.010249732062220573, 0.01084846816956997, 0.011447204276919365, 0.012045941315591335, 0.012644678354263306, 0.013243414461612701, 0.013842150568962097, 0.014440887607634068, 0.015039624646306038, 0.015638360753655434, 0.01623709686100483, 0.016835834830999374, 0.01743457093834877, 0.018033307045698166, 0.01863204315304756, 0.019230779260396957, 0.019829517230391502, 0.020428253337740898, 0.021026989445090294, 0.02162572741508484, 0.022224463522434235, 0.02282319962978363]}, "gradients/module.mm_module.outside.self_attn.in_proj_weight": {"_type": "histogram", "values": [1.0, 0.0, 0.0, 0.0, 0.0, 3.0, 0.0, 1.0, 1.0, 0.0, 1.0, 2.0, 2.0, 1.0, 6.0, 2.0, 3.0, 10.0, 5.0, 3.0, 7.0, 11.0, 12.0, 13.0, 22.0, 30.0, 52.0, 59.0, 76.0, 102.0, 2183.0, 128.0, 97.0, 57.0, 47.0, 32.0, 24.0, 13.0, 6.0, 16.0, 8.0, 5.0, 7.0, 2.0, 2.0, 2.0, 2.0, 2.0, 2.0, 7.0, 2.0, 1.0, 1.0, 0.0, 0.0, 0.0, 0.0, 0.0, 0.0, 0.0, 0.0, 0.0, 0.0, 1.0], "bins": [-0.040485311299562454, -0.03915747255086899, -0.03782963007688522, -0.03650178760290146, -0.03517394885420799, -0.033846110105514526, -0.03251826763153076, -0.031190427020192146, -0.02986258640885353, -0.028534745797514915, -0.0272069051861763, -0.025879064574837685, -0.02455122396349907, -0.023223383352160454, -0.02189554274082184, -0.020567702129483223, -0.019239861518144608, -0.017912020906805992, -0.016584180295467377, -0.015256339684128761, -0.013928499072790146, -0.01260065846145153, -0.011272817850112915, -0.0099449772387743, -0.008617136627435684, -0.007289296016097069, -0.005961455404758453, -0.004633614793419838, -0.0033057741820812225, -0.001977933570742607, -0.0006500929594039917, 0.0006777476519346237, 0.002005588263273239, 0.0033334288746118546, 0.00466126948595047, 0.005989110097289085, 0.007316950708627701, 0.008644791319966316, 0.009972631931304932, 0.011300472542643547, 0.012628313153982162, 0.013956153765320778, 0.015283994376659393, 0.01661183498799801, 0.017939675599336624, 0.01926751621067524, 0.020595356822013855, 0.02192319743335247, 0.023251038044691086, 0.0245788786560297, 0.025906719267368317, 0.027234559878706932, 0.028562400490045547, 0.029890241101384163, 0.03121808171272278, 0.03254592418670654, 0.03387376293540001, 0.035201601684093475, 0.03652944415807724, 0.037857286632061005, 0.03918512538075447, 0.04051296412944794, 0.0418408066034317, 0.043168649077415466, 0.04449648782610893]}, "gradients/module.mm_module.inside.self_attn.in_proj_weight": {"_type": "histogram", "values": [2.0, 0.0, 0.0, 2.0, 0.0, 0.0, 1.0, 0.0, 0.0, 1.0, 3.0, 2.0, 4.0, 4.0, 5.0, 7.0, 8.0, 8.0, 6.0, 13.0, 16.0, 14.0, 23.0, 31.0, 37.0, 65.0, 79.0, 82.0, 2189.0, 110.0, 74.0, 66.0, 41.0, 44.0, 28.0, 20.0, 15.0, 13.0, 12.0, 5.0, 4.0, 6.0, 8.0, 8.0, 0.0, 6.0, 0.0, 1.0, 1.0, 0.0, 1.0, 0.0, 2.0, 0.0, 0.0, 0.0, 0.0, 0.0, 4.0, 0.0, 0.0, 0.0, 0.0, 1.0], "bins": [-0.03673262894153595, -0.03545182943344116, -0.034171029925346375, -0.032890234142541885, -0.0316094346344471, -0.03032863512635231, -0.029047837480902672, -0.027767039835453033, -0.026486240327358246, -0.025205440819263458, -0.02392464317381382, -0.02264384552836418, -0.021363046020269394, -0.020082246512174606, -0.018801448866724968, -0.01752065122127533, -0.016239851713180542, -0.014959053136408329, -0.013678254559636116, -0.012397455982863903, -0.01111665740609169, -0.009835858829319477, -0.008555060252547264, -0.007274261675775051, -0.005993463099002838, -0.004712664522230625, -0.003431865945458412, -0.002151067368686199, -0.0008702687919139862, 0.0004105297848582268, 0.0016913283616304398, 0.0029721269384026527, 0.004252925515174866, 0.005533724091947079, 0.006814522668719292, 0.008095321245491505, 0.009376119822263718, 0.01065691839903593, 0.011937716975808144, 0.013218515552580357, 0.01449931412935257, 0.015780113637447357, 0.017060911282896996, 0.018341708928346634, 0.01962250843644142, 0.02090330794453621, 0.022184105589985847, 0.023464903235435486, 0.024745702743530273, 0.02602650225162506, 0.0273072998970747, 0.028588097542524338, 0.029868897050619125, 0.031149696558713913, 0.0324304923415184, 0.03371129184961319, 0.03499209135770798, 0.036272890865802765, 0.03755369037389755, 0.03883448615670204, 0.04011528566479683, 0.04139608517289162, 0.042676880955696106, 0.043957680463790894, 0.04523847997188568]}, "gradients/module.mm_embeddings_bn.weight": {"_type": "histogram", "values": [1.0, 0.0, 0.0, 0.0, 0.0, 0.0, 0.0, 0.0, 0.0, 0.0, 0.0, 0.0, 0.0, 0.0, 0.0, 0.0, 0.0, 0.0, 0.0, 0.0, 0.0, 0.0, 0.0, 0.0, 0.0, 0.0, 0.0, 0.0, 0.0, 0.0, 0.0, 0.0, 0.0, 0.0, 0.0, 0.0, 0.0, 0.0, 0.0, 0.0, 0.0, 0.0, 0.0, 0.0, 0.0, 0.0, 0.0, 0.0, 0.0, 0.0, 0.0, 0.0, 0.0, 0.0, 0.0, 0.0, 0.0, 0.0, 0.0, 0.0, 0.0, 0.0, 0.0, 1.0], "bins": [-0.20605073869228363, -0.2039734274148941, -0.20189611613750458, -0.19981880486011505, -0.19774150848388672, -0.1956641972064972, -0.19358688592910767, -0.19150957465171814, -0.1894322633743286, -0.1873549520969391, -0.18527764081954956, -0.18320032954216003, -0.1811230182647705, -0.17904572188854218, -0.17696841061115265, -0.17489109933376312, -0.1728137880563736, -0.17073647677898407, -0.16865916550159454, -0.16658185422420502, -0.16450455784797668, -0.16242724657058716, -0.16034993529319763, -0.1582726240158081, -0.15619531273841858, -0.15411800146102905, -0.15204069018363953, -0.14996337890625, -0.14788606762886047, -0.14580877125263214, -0.14373145997524261, -0.1416541486978531, -0.13957683742046356, -0.13749952614307404, -0.1354222148656845, -0.13334490358829498, -0.13126760721206665, -0.12919029593467712, -0.1271129846572876, -0.12503567337989807, -0.12295836210250854, -0.12088105082511902, -0.11880373954772949, -0.11672643572092056, -0.11464912444353104, -0.11257181316614151, -0.11049450933933258, -0.10841719806194305, -0.10633988678455353, -0.104262575507164, -0.10218526422977448, -0.10010796040296555, -0.09803064912557602, -0.09595333784818649, -0.09387603402137756, -0.09179872274398804, -0.08972141146659851, -0.08764410018920898, -0.08556678891181946, -0.08348948508501053, -0.081412173807621, -0.07933486253023148, -0.07725755870342255, -0.07518024742603302, -0.0731029361486435]}, "gradients/module.mm_module.inside.lstm.bias_ih_l1": {"_type": "histogram", "values": [1.0, 1.0, 0.0, 0.0, 0.0, 0.0, 0.0, 1.0, 0.0, 2.0, 0.0, 1.0, 1.0, 0.0, 1.0, 3.0, 3.0, 1.0, 4.0, 3.0, 19.0, 41.0, 21.0, 6.0, 3.0, 5.0, 2.0, 0.0, 1.0, 1.0, 1.0, 0.0, 1.0, 0.0, 1.0, 0.0, 0.0, 0.0, 0.0, 0.0, 0.0, 0.0, 1.0, 0.0, 0.0, 0.0, 0.0, 0.0, 0.0, 0.0, 0.0, 0.0, 0.0, 0.0, 0.0, 0.0, 1.0, 0.0, 0.0, 0.0, 0.0, 0.0, 0.0, 2.0], "bins": [-0.031847987323999405, -0.030371028929948807, -0.02889407053589821, -0.02741711214184761, -0.025940153747797012, -0.024463193491101265, -0.022986235097050667, -0.02150927670300007, -0.02003231830894947, -0.018555359914898872, -0.017078401520848274, -0.015601442195475101, -0.014124483801424503, -0.012647525407373905, -0.011170566082000732, -0.009693607687950134, -0.008216649293899536, -0.006739690899848938, -0.0052627320401370525, -0.0037857734132558107, -0.002308814786374569, -0.0008318561594933271, 0.0006451024673879147, 0.0021220610942691565, 0.0035990197211503983, 0.005075978115200996, 0.006552936974912882, 0.008029895834624767, 0.009506854228675365, 0.010983812622725964, 0.012460771948099136, 0.013937730342149734, 0.015414688736200333, 0.01689164713025093, 0.01836860552430153, 0.019845563918352127, 0.021322522312402725, 0.022799482569098473, 0.02427644096314907, 0.02575339935719967, 0.027230357751250267, 0.028707316145300865, 0.030184274539351463, 0.03166123479604721, 0.03313819319009781, 0.03461515158414841, 0.036092109978199005, 0.0375690683722496, 0.0390460267663002, 0.0405229851603508, 0.0419999435544014, 0.043476901948451996, 0.044953860342502594, 0.04643081873655319, 0.04790777713060379, 0.04938473552465439, 0.05086169391870499, 0.05233865603804588, 0.05381561443209648, 0.05529257282614708, 0.05676953122019768, 0.058246489614248276, 0.059723448008298874, 0.06120040640234947, 0.06267736852169037]}, "gradients/module.mm_module.inside.lstm.bias_ih_l0": {"_type": "histogram", "values": [1.0, 0.0, 0.0, 0.0, 0.0, 0.0, 0.0, 0.0, 0.0, 0.0, 0.0, 0.0, 0.0, 0.0, 0.0, 0.0, 0.0, 0.0, 0.0, 0.0, 0.0, 0.0, 0.0, 0.0, 0.0, 1.0, 0.0, 0.0, 0.0, 0.0, 0.0, 0.0, 0.0, 0.0, 0.0, 0.0, 1.0, 0.0, 0.0, 1.0, 0.0, 0.0, 0.0, 1.0, 2.0, 0.0, 0.0, 0.0, 1.0, 0.0, 0.0, 2.0, 3.0, 3.0, 50.0, 29.0, 15.0, 7.0, 2.0, 2.0, 2.0, 1.0, 3.0, 1.0], "bins": [-0.010561993345618248, -0.010369744151830673, -0.010177494958043098, -0.009985245764255524, -0.009792996570467949, -0.009600747376680374, -0.0094084981828928, -0.009216248989105225, -0.00902399979531765, -0.008831750601530075, -0.0086395014077425, -0.008447252213954926, -0.00825500302016735, -0.008062753826379776, -0.007870504632592201, -0.0076782554388046265, -0.007486006245017052, -0.00729375658556819, -0.007101507391780615, -0.00690925819799304, -0.006717009004205465, -0.0065247598104178905, -0.006332510616630316, -0.006140261422842741, -0.005948012229055166, -0.0057557630352675915, -0.005563513841480017, -0.005371264647692442, -0.005179015453904867, -0.004986766260117292, -0.004794517066329718, -0.004602267872542143, -0.004410018678754568, -0.004217769484966993, -0.0040255202911794186, -0.003833271097391844, -0.003641021903604269, -0.0034487727098166943, -0.0032565235160291195, -0.0030642743222415447, -0.00287202512845397, -0.0026797757018357515, -0.0024875265080481768, -0.002295277314260602, -0.0021030281204730272, -0.0019107789266854525, -0.0017185297328978777, -0.001526280539110303, -0.0013340313453227282, -0.0011417821515351534, -0.0009495329577475786, -0.0007572837057523429, -0.0005650345119647682, -0.0003727853181771934, -0.00018053609528578818, 1.1713113053701818e-05, 0.00020396232139319181, 0.0003962115151807666, 0.0005884607089683414, 0.000780709960963577, 0.0009729591547511518, 0.0011652084067463875, 0.0013574576005339622, 0.001549706794321537, 0.0017419559881091118]}, "gradients/module.mm_module.outside.self_attn.out_proj.weight": {"_type": "histogram", "values": [1.0, 0.0, 0.0, 0.0, 0.0, 0.0, 0.0, 0.0, 1.0, 1.0, 0.0, 0.0, 0.0, 0.0, 0.0, 1.0, 0.0, 1.0, 0.0, 2.0, 0.0, 2.0, 6.0, 1.0, 3.0, 3.0, 8.0, 5.0, 5.0, 12.0, 11.0, 19.0, 22.0, 45.0, 51.0, 646.0, 41.0, 43.0, 21.0, 19.0, 12.0, 6.0, 9.0, 4.0, 5.0, 2.0, 2.0, 3.0, 1.0, 0.0, 3.0, 0.0, 0.0, 4.0, 0.0, 0.0, 0.0, 0.0, 0.0, 1.0, 0.0, 0.0, 1.0, 1.0], "bins": [-0.12929224967956543, -0.1256333887577057, -0.12197451293468475, -0.11831565201282501, -0.11465678364038467, -0.11099791526794434, -0.1073390543460846, -0.10368018597364426, -0.10002131760120392, -0.09636244922876358, -0.09270358085632324, -0.0890447199344635, -0.08538585156202316, -0.08172698318958282, -0.07806812226772308, -0.07440925389528275, -0.07075038552284241, -0.06709151715040207, -0.06343264877796173, -0.05977378785610199, -0.05611491948366165, -0.052456051111221313, -0.048797186464071274, -0.045138321816921234, -0.041479453444480896, -0.03782058507204056, -0.03416172042489052, -0.03050285391509533, -0.02684398740530014, -0.02318512089550495, -0.019526254385709763, -0.015867387875914574, -0.012208521366119385, -0.008549654856324196, -0.004890788346529007, -0.001231921836733818, 0.002426944673061371, 0.00608581118285656, 0.009744677692651749, 0.013403544202446938, 0.017062410712242126, 0.020721277222037315, 0.024380143731832504, 0.028039010241627693, 0.03169787675142288, 0.03535674512386322, 0.03901560977101326, 0.0426744744181633, 0.04633334279060364, 0.049992211163043976, 0.053651075810194016, 0.057309940457344055, 0.06096880882978439, 0.06462767720222473, 0.06828653812408447, 0.07194540649652481, 0.07560427486896515, 0.07926314324140549, 0.08292201161384583, 0.08658087253570557, 0.0902397409081459, 0.09389860928058624, 0.09755747020244598, 0.10121633857488632, 0.10487520694732666]}, "valid_f1": 0.22424242424242424, "epoch": 24, "train_loss": 0.41305974991527067, "valid_loss": 1.2302856004676936, "train_acc": 0.6491458415985107, "valid_acc": 0.21472391486167908, "train_f1": 0.6490968801313629}
